{"ip":0,"fr":60,"v":"5.1.20","assets":[],"layers":[{"ty":4,"nm":"object1","ip":0,"st":0,"ind":1,"hix":1,"ks":{"o":{"a":0,"k":100},"or":{"a":0,"k":[0,0,0]},"a":{"a":0,"k":[540,540,0]},"p":{"s":true,"x":{"a":0,"k":540},"y":{"a":0,"k":540}},"rx":{"a":0,"k":0},"ry":{"a":0,"k":0},"rz":{"a":0,"k":0},"s":{"a":0,"k":[100,100,100]}},"shapes":[{"ty":"gr","nm":"object1 shape group","it":[{"ty":"sh","ks":{"a":1,"k":[{"t":0,"s":[{"c":true,"v":[[994.53287,961.77126],[739.1684700000001,1059.4251],[500.26256000000006,1192.358],[236.26896000000005,1121.2622],[-35.146028,1088.3819],[-206.93226,875.69256],[-407.18501000000003,689.55808],[-421.14736000000005,416.51542],[-473.74814000000003,148.22385000000003],[-324.55346000000003,-80.87916599999997],[-209.41056000000003,-328.84956999999997],[45.95383999999996,-426.50336999999996],[284.85975999999994,-559.43634],[548.85336,-488.34049999999996],[820.26834,-455.46016],[992.05457,-242.77086999999997],[1192.3073,-56.636390999999975],[1206.2696999999998,216.40627000000003],[1258.8703999999998,484.69784000000004],[1109.6757999999998,713.8008600000001],[994.5328699999998,961.7712600000001]],"i":[[0,0],[123.88195999999994,-57.793399999999906],[135.67784,-16.683099999999968],[134.19268000000005,26.060200000000123],[119.571764,66.25249999999983],[93.24638000000002,99.95961],[57.79334000000006,123.8819299999999],[16.68312000000003,135.67787000000004],[-26.060170000000028,134.19266],[-66.25253000000004,119.571792],[-99.95958999999999,93.24635],[-123.88195299999998,57.793349999999975],[-135.67784999999998,16.683110000000056],[-134.19269000000003,-26.060180000000003],[-119.57176000000004,-66.25251000000003],[-93.24638000000004,-99.95960999999997],[-57.79329999999982,-123.88192899999999],[-16.683099999999968,-135.67786900000002],[26.060200000000123,-134.19266000000005],[66.25250000000005,-119.57178999999996],[99.95963000000006,-93.24635]],"o":[[-99.95961,93.24633999999992],[-123.88192000000004,57.793300000000045],[-135.67787000000004,16.683099999999968],[-134.19266000000005,-26.060199999999895],[-119.57179199999999,-66.25260000000014],[-93.24635000000004,-99.95959000000005],[-57.793349999999975,-123.88194999999996],[-16.68311,-135.67784],[26.060189999999977,-134.192687],[66.25250999999997,-119.571764],[99.95962,-93.24637000000001],[123.88193000000001,-57.793349999999975],[135.67786,-16.68312000000003],[134.19266000000005,26.060170000000028],[119.57178999999996,66.25252999999998],[93.24632999999994,99.95959000000002],[57.79340000000002,123.881956],[16.683099999999968,135.67783999999997],[-26.06009999999992,134.19268999999997],[-66.25250000000005,119.57176000000004],[0,0]]}],"e":[{"c":true,"v":[[2637.6190848990855,513.8835505192897],[2382.2546848990855,611.5373905192896],[2143.3487748990856,744.4702905192896],[1879.3551748990856,673.3744905192896],[1607.9401868990853,640.4941905192898],[1436.1539548990854,427.8048505192897],[1235.9012048990853,241.67037051928975],[1221.9388548990855,-31.372289480710265],[1169.3380748990853,-299.66385948071024],[1318.5327548990854,-528.7668754807103],[1433.6756548990854,-776.7372794807102],[1689.0400548990854,-874.3910794807102],[1927.9459748990853,-1007.3240494807103],[2191.9395748990855,-936.2282094807102],[2463.3545548990855,-903.3478694807102],[2635.1407848990857,-690.6585794807103],[2835.3935148990854,-504.5241004807102],[2849.3559148990853,-231.48143948071024],[2901.9566148990853,36.81013051928977],[2752.7620148990854,265.9131505192898],[2637.6190848990855,513.8835505192899]],"i":[[0,0],[123.88196000000016,-57.79339999999979],[135.67783999999983,-16.683099999999968],[134.19267999999988,26.060200000000123],[119.57176400000003,66.25249999999983],[93.24638000000004,99.95961000000005],[57.79334000000017,123.8819299999999],[16.683119999999917,135.67787000000004],[-26.06016999999997,134.19266],[-66.25252999999998,119.57179200000002],[31.385270652461713,105.83341836961199],[-123.88195299999984,57.79334999999992],[-135.6778499999998,16.68311000000017],[-134.1926900000003,-26.06018000000006],[-119.57176000000027,-66.25251000000003],[-93.2463800000005,-99.95961],[-57.79329999999982,-123.88192900000001],[-16.683100000000195,-135.67786900000002],[26.060199999999895,-134.19266000000005],[66.2524999999996,-119.57178999999996],[99.95962999999983,-93.24635000000006]],"o":[[-99.95960999999988,93.24633999999992],[-123.88192000000026,57.793300000000045],[-135.67786999999998,16.683099999999968],[-134.19266000000016,-26.060199999999895],[-119.57179199999996,-66.25260000000003],[-93.2463499999999,-99.95959000000005],[-57.79334999999992,-123.88194999999996],[-16.68311000000017,-135.67784],[26.060190000000148,-134.19268699999998],[66.25251000000003,-119.57176400000003],[-31.38524065246156,-105.83343836961217],[123.88193000000001,-57.79334999999992],[135.67786000000024,-16.683119999999917],[134.1926599999997,26.060170000000085],[119.57178999999996,66.25252999999998],[93.24632999999994,99.95959000000005],[57.79340000000002,123.88195599999995],[16.683100000000195,135.67783999999997],[-26.060099999999693,134.19268999999997],[-66.25250000000051,119.57176000000004],[0,0]]}],"i":{"x":[0.515],"y":[0.955]},"o":{"x":[0.455],"y":[0.03]}},{"t":76}]}},{"ty":"st","o":{"a":0,"k":0},"w":{"a":0,"k":0},"c":{"a":0,"k":[0,0,0,0]},"lc":3,"lj":1,"ml":1},{"ty":"fl","o":{"a":0,"k":100},"r":1,"c":{"a":0,"k":[0.8352941176470589,0.6470588235294118,0.2627450980392157,1]}},{"ty":"tr","o":{"a":0,"k":100},"a":{"a":0,"k":[0,0]},"s":{"a":0,"k":[57.199999999999996,56.99999999999999]},"p":{"a":0,"k":[372.721,305.21]},"r":{"a":0,"k":15.813635145610723}}]}],"op":76}],"op":76,"w":1920,"h":1080}